{
    "learner": {
        "attributes": {
            "best_iteration": "54",
            "best_score": "0.4667102232783202"
        },
        "feature_names": [],
        "feature_types": [],
        "gradient_booster": {
            "model": {
                "cats": {
                    "enc": [],
                    "feature_segments": [],
                    "sorted_idx": []
                },
                "gbtree_model_param": {
                    "num_parallel_tree": "1",
                    "num_trees": "155"
                },
                "iteration_indptr": [
                    0,
                    1,
                    2,
                    3,
                    4,
                    5,
                    6,
                    7,
                    8,
                    9,
                    10,
                    11,
                    12,
                    13,
                    14,
                    15,
                    16,
                    17,
                    18,
                    19,
                    20,
                    21,
                    22,
                    23,
                    24,
                    25,
                    26,
                    27,
                    28,
                    29,
                    30,
                    31,
                    32,
                    33,
                    34,
                    35,
                    36,
                    37,
                    38,
                    39,
                    40,
                    41,
                    42,
                    43,
                    44,
                    45,
                    46,
                    47,
                    48,
                    49,
                    50,
                    51,
                    52,
                    53,
                    54,
                    55,
                    56,
                    57,
                    58,
                    59,
                    60,
                    61,
                    62,
                    63,
                    64,
                    65,
                    66,
                    67,
                    68,
                    69,
                    70,
                    71,
                    72,
                    73,
                    74,
                    75,
                    76,
                    77,
                    78,
                    79,
                    80,
                    81,
                    82,
                    83,
                    84,
                    85,
                    86,
                    87,
                    88,
                    89,
                    90,
                    91,
                    92,
                    93,
                    94,
                    95,
                    96,
                    97,
                    98,
                    99,
                    100,
                    101,
                    102,
                    103,
                    104,
                    105,
                    106,
                    107,
                    108,
                    109,
                    110,
                    111,
                    112,
                    113,
                    114,
                    115,
                    116,
                    117,
                    118,
                    119,
                    120,
                    121,
                    122,
                    123,
                    124,
                    125,
                    126,
                    127,
                    128,
                    129,
                    130,
                    131,
                    132,
                    133,
                    134,
                    135,
                    136,
                    137,
                    138,
                    139,
                    140,
                    141,
                    142,
                    143,
                    144,
                    145,
                    146,
                    147,
                    148,
                    149,
                    150,
                    151,
                    152,
                    153,
                    154,
                    155
                ],
                "tree_info": [
                    0,
                    0,
                    0,
                    0,
                    0,
                    0,
                    0,
                    0,
                    0,
                    0,
                    0,
                    0,
                    0,
                    0,
                    0,
                    0,
                    0,
                    0,
                    0,
                    0,
                    0,
                    0,
                    0,
                    0,
                    0,
                    0,
                    0,
                    0,
                    0,
                    0,
                    0,
                    0,
                    0,
                    0,
                    0,
                    0,
                    0,
                    0,
                    0,
                    0,
                    0,
                    0,
                    0,
                    0,
                    0,
                    0,
                    0,
                    0,
                    0,
                    0,
                    0,
                    0,
                    0,
                    0,
                    0,
                    0,
                    0,
                    0,
                    0,
                    0,
                    0,
                    0,
                    0,
                    0,
                    0,
                    0,
                    0,
                    0,
                    0,
                    0,
                    0,
                    0,
                    0,
                    0,
                    0,
                    0,
                    0,
                    0,
                    0,
                    0,
                    0,
                    0,
                    0,
                    0,
                    0,
                    0,
                    0,
                    0,
                    0,
                    0,
                    0,
                    0,
                    0,
                    0,
                    0,
                    0,
                    0,
                    0,
                    0,
                    0,
                    0,
                    0,
                    0,
                    0,
                    0,
                    0,
                    0,
                    0,
                    0,
                    0,
                    0,
                    0,
                    0,
                    0,
                    0,
                    0,
                    0,
                    0,
                    0,
                    0,
                    0,
                    0,
                    0,
                    0,
                    0,
                    0,
                    0,
                    0,
                    0,
                    0,
                    0,
                    0,
                    0,
                    0,
                    0,
                    0,
                    0,
                    0,
                    0,
                    0,
                    0,
                    0,
                    0,
                    0,
                    0,
                    0,
                    0,
                    0,
                    0,
                    0,
                    0,
                    0,
                    0,
                    0,
                    0
                ],
                "trees": [
                    {
                        "base_weights": [
                            3.390625E-2,
                            -9.522611E-1,
                            2.191321E0,
                            -1.1066296E0,
                            -1.1002385E-2,
                            1.6659074E0,
                            7.299226E-2,
                            -2.8914189E-2,
                            -1.8751858E-2,
                            3.0909698E-2,
                            4.6343748E-2
                        ],
                        "categories": [],
                        "categories_nodes": [],
                        "categories_segments": [],
                        "categories_sizes": [],
                        "default_left": [
                            0,
                            0,
                            0,
                            0,
                            0,
                            0,
                            0,
                            0,
                            0,
                            0,
                            0
                        ],
                        "id": 0,
                        "left_children": [
                            1,
                            3,
                            5,
                            7,
                            -1,
                            9,
                            -1,
                            -1,
                            -1,
                            -1,
                            -1
                        ],
                        "loss_changes": [
                            1.0487871E3,
                            2.4421936E1,
                            7.264557E1,
                            9.481262E0,
                            0E0,
                            8.794159E0,
                            0E0,
                            0E0,
                            0E0,
                            0E0,
                            0E0
                        ],
                        "parents": [
                            2147483647,
                            0,
                            0,
                            1,
                            1,
                            2,
                            2,
                            3,
                            3,
                            5,
                            5
                        ],
                        "right_children": [
                            2,
                            4,
                            6,
                            8,
                            -1,
                            10,
                            -1,
                            -1,
                            -1,
                            -1,
                            -1
                        ],
                        "split_conditions": [
                            1.5435746E-1,
                            -1.3977084E-1,
                            2.8331063E0,
                            -4.7779122E-1,
                            -1.1002385E-2,
                            1.0395721E-1,
                            7.299226E-2,
                            -2.8914189E-2,
                            -1.8751858E-2,
                            3.0909698E-2,
                            4.6343748E-2
                        ],
                        "split_indices": [
                            87,
                            69,
                            91,
                            87,
                            0,
                            88,
                            0,
                            0,
                            0,
                            0,
                            0
                        ],
                        "split_type": [
                            0,
                            0,
                            0,
                            0,
                            0,
                            0,
                            0,
                            0,
                            0,
                            0,
                            0
                        ],
                        "sum_hessian": [
                            4.9146863E2,
                            3.3751715E2,
                            1.539515E2,
                            2.5434552E2,
                            8.3171616E1,
                            1.0039402E2,
                            5.355748E1,
                            1.7285414E2,
                            8.149138E1,
                            5.1457188E1,
                            4.8936836E1
                        ],
                        "tree_param": {
                            "num_deleted": "0",
                            "num_feature": "97",
                            "num_nodes": "11",
                            "size_leaf_vector": "1"
                        }
                    },
                    {
                        "base_weights": [
                            -2.7535694E-2,
                            -9.9993724E-1,
                            2.0190558E0,
                            -1.1612973E0,
                            -1.0600644E-2,
                            2.703188E-2,
                            6.658791E-2,
                            -2.8989216E-2,
                            -1.8238159E-2
                        ],
                        "categories": [],
                        "categories_nodes": [],
                        "categories_segments": [],
                        "categories_sizes": [],
                        "default_left": [
                            0,
                            0,
                            0,
                            0,
                            0,
                            0,
                            0,
                            0,
                            0
                        ],
                        "id": 1,
                        "left_children": [
                            1,
                            3,
                            5,
                            7,
                            -1,
                            -1,
                            -1,
                            -1,
                            -1
                        ],
                        "loss_changes": [
                            9.667112E2,
                            2.8314056E1,
                            1.1025629E2,
                            7.181305E0,
                            0E0,
                            0E0,
                            0E0,
                            0E0,
                            0E0
                        ],
                        "parents": [
                            2147483647,
                            0,
                            0,
                            1,
                            1,
                            2,
                            2,
                            3,
                            3
                        ],
                        "right_children": [
                            2,
                            4,
                            6,
                            8,
                            -1,
                            -1,
                            -1,
                            -1,
                            -1
                        ],
                        "split_conditions": [
                            1.5435746E-1,
                            -2.2648174E-1,
                            7.754353E-1,
                            2.3793975E-1,
                            -1.0600644E-2,
                            2.703188E-2,
                            6.658791E-2,
                            -2.8989216E-2,
                            -1.8238159E-2
                        ],
                        "split_indices": [
                            87,
                            87,
                            87,
                            90,
                            0,
                            0,
                            0,
                            0,
                            0
                        ],
                        "split_type": [
                            0,
                            0,
                            0,
                            0,
                            0,
                            0,
                            0,
                            0,
                            0
                        ],
                        "sum_hessian": [
                            4.844063E2,
                            3.286732E2,
                            1.5573314E2,
                            2.5267238E2,
                            7.60008E1,
                            7.823818E1,
                            7.7494965E1,
                            2.0436287E2,
                            4.83095E1
                        ],
                        "tree_param": {
                            "num_deleted": "0",
                            "num_feature": "97",
                            "num_nodes": "9",
                            "size_leaf_vector": "1"
                        }
                    },
                    {
                        "base_weights": [
                            -1.1292304E-2,
                            -7.4723047E-1,
                            1.8278049E0,
                            -1.0490729E0,
                            3.1044392E-3,
                            2.087846E-2,
                            6.0909122E-2,
                            -1.205972E0,
                            -1.6217036E-2,
                            -3.0952342E-2,
                            -2.4291094E-2
                        ],
                        "categories": [],
                        "categories_nodes": [],
                        "categories_segments": [],
                        "categories_sizes": [],
                        "default_left": [
                            0,
                            0,
                            0,
                            0,
                            0,
                            0,
                            0,
                            0,
                            0,
                            0,
                            0
                        ],
                        "id": 2,
                        "left_children": [
                            1,
                            3,
                            5,
                            7,
                            -1,
                            -1,
                            -1,
                            9,
                            -1,
                            -1,
                            -1
                        ],
                        "loss_changes": [
                            6.496823E2,
                            9.140044E1,
                            9.8819885E1,
                            1.3241272E1,
                            0E0,
                            0E0,
                            0E0,
                            2.227005E0,
                            0E0,
                            0E0,
                            0E0
                        ],
                        "parents": [
                            2147483647,
                            0,
                            0,
                            1,
                            1,
                            2,
                            2,
                            3,
                            3,
                            7,
                            7
                        ],
                        "right_children": [
                            2,
                            4,
                            6,
                            8,
                            -1,
                            -1,
                            -1,
                            10,
                            -1,
                            -1,
                            -1
                        ],
                        "split_conditions": [
                            2.0205066E-1,
                            -2.3762034E-1,
                            6.4055026E-1,
                            1.6164185E-1,
                            3.1044392E-3,
                            2.087846E-2,
                            6.0909122E-2,
                            -1.9198994E-1,
                            -1.6217036E-2,
                            -3.0952342E-2,
                            -2.4291094E-2
                        ],
                        "split_indices": [
                            70,
                            72,
                            70,
                            90,
                            0,
                            0,
                            0,
                            73,
                            0,
                            0,
                            0
                        ],
                        "split_type": [
                            0,
                            0,
                            0,
                            0,
                            0,
                            0,
                            0,
                            0,
                            0,
                            0,
                            0
                        ],
                        "sum_hessian": [
                            4.7870764E2,
                            3.422485E2,
                            1.3645914E2,
                            2.549112E2,
                            8.733732E1,
                            6.3525314E1,
                            7.293382E1,
                            1.7480072E2,
                            8.011047E1,
                            9.505209E1,
                            7.974863E1
                        ],
                        "tree_param": {
                            "num_deleted": "0",
                            "num_feature": "97",
                            "num_nodes": "11",
                            "size_leaf_vector": "1"
                        }
                    },
                    {
                        "base_weights": [
                            4.6369685E-3,
                            -9.3132323E-1,
                            1.8935415E0,
                            -1.0825737E0,
                            -4.101733E-3,
                            3.0260367E-2,
                            6.2324356E-2,
                            -2.7959881E-2,
                            -2.1523537E-2
                        ],
                        "categories": [],
                        "categories_nodes": [],
                        "categories_segments": [],
                        "categories_sizes": [],
                        "default_left": [
                            0,
                            0,
                            0,
                            0,
                            0,
                            0,
                            0,
                            0,
                            0
                        ],
                        "id": 3,
                        "left_children": [
                            1,
                            3,
                            5,
                            7,
                            -1,
                            -1,
                            -1,
                            -1,
                            -1
                        ],
                        "loss_changes": [
                            8.528451E2,
                            3.6508026E1,
                            7.145245E1,
                            3.9624329E0,
                            0E0,
                            0E0,
                            0E0,
                            0E0,
                            0E0
                        ],
                        "parents": [
                            2147483647,
                            0,
                            0,
                            1,
                            1,
                            2,
                            2,
                            3,
                            3
                        ],
                        "right_children": [
                            2,
                            4,
                            6,
                            8,
                            -1,
                            -1,
                            -1,
                            -1,
                            -1
                        ],
                        "split_conditions": [
                            1.4328651E-1,
                            -1.32379E-1,
                            9.868896E-1,
                            -3.4371446E-4,
                            -4.101733E-3,
                            3.0260367E-2,
                            6.2324356E-2,
                            -2.7959881E-2,
                            -2.1523537E-2
                        ],
                        "split_indices": [
                            87,
                            87,
                            87,
                            73,
                            0,
                            0,
                            0,
                            0,
                            0
                        ],
                        "split_type": [
                            0,
                            0,
                            0,
                            0,
                            0,
                            0,
                            0,
                            0,
                            0
                        ],
                        "sum_hessian": [
                            4.8090686E2,
                            3.2175818E2,
                            1.5914868E2,
                            2.6764267E2,
                            5.4115513E1,
                            9.1976845E1,
                            6.717184E1,
                            1.4856384E2,
                            1.19078835E2
                        ],
                        "tree_param": {
                            "num_deleted": "0",
                            "num_feature": "97",
                            "num_nodes": "9",
                            "size_leaf_vector": "1"
                        }
                    },
                    {
                        "base_weights": [
                            3.1142246E-2,
                            -6.746159E-1,
                            1.8671548E0,
                            -1.0316976E0,
                            -1.2815718E-1,
                            2.8625766E-2,
                            6.1953515E-2,
                            -1.852862E-2,
                            -2.818257E-2,
                            -1.694707E-2,
                            1.2879812E-2
                        ],
                        "categories": [],
                        "categories_nodes": [],
                        "categories_segments": [],
                        "categories_sizes": [],
                        "default_left": [
                            0,
                            0,
                            0,
                            0,
                            0,
                            0,
                            0,
                            0,
                            0,
                            0,
                            0
                        ],
                        "id": 4,
                        "left_children": [
                            1,
                            3,
                            5,
                            7,
                            9,
                            -1,
                            -1,
                            -1,
                            -1,
                            -1,
                            -1
                        ],
                        "loss_changes": [
                            6.2779785E2,
                            6.800836E1,
                            6.5359985E1,
                            7.9848633E0,
                            5.7347973E1,
                            0E0,
                            0E0,
                            0E0,
                            0E0,
                            0E0,
                            0E0
                        ],
                        "parents": [
                            2147483647,
                            0,
                            0,
                            1,
                            1,
                            2,
                            2,
                            3,
                            3,
                            4,
                            4
                        ],
                        "right_children": [
                            2,
                            4,
                            6,
                            8,
                            10,
                            -1,
                            -1,
                            -1,
                            -1,
                            -1,
                            -1
                        ],
                        "split_conditions": [
                            2.567189E-1,
                            -3.4904382E-1,
                            2.8331063E0,
                            3.1062886E-1,
                            -2.3762034E-1,
                            2.8625766E-2,
                            6.1953515E-2,
                            -1.852862E-2,
                            -2.818257E-2,
                            -1.694707E-2,
                            1.2879812E-2
                        ],
                        "split_indices": [
                            70,
                            70,
                            91,
                            78,
                            72,
                            0,
                            0,
                            0,
                            0,
                            0,
                            0
                        ],
                        "split_type": [
                            0,
                            0,
                            0,
                            0,
                            0,
                            0,
                            0,
                            0,
                            0,
                            0,
                            0
                        ],
                        "sum_hessian": [
                            4.8297092E2,
                            3.4913492E2,
                            1.33836E2,
                            2.1062079E2,
                            1.3851414E2,
                            7.553943E1,
                            5.829657E1,
                            9.347906E1,
                            1.1714173E2,
                            7.3735664E1,
                            6.477847E1
                        ],
                        "tree_param": {
                            "num_deleted": "0",
                            "num_feature": "97",
                            "num_nodes": "11",
                            "size_leaf_vector": "1"
                        }
                    },
                    {
                        "base_weights": [
                            2.3756113E-2,
                            -1.0048528E0,
                            1.6447406E0,
                            -8.309858E-1,
                            -1.0959235E0,
                            2.2310168E-2,
                            5.336845E-2,
                            -1.4205899E-2,
                            -2.3811929E-2,
                            -2.8691802E-2,
                            -2.0662447E-2
                        ],
                        "categories": [],
                        "categories_nodes": [],
                        "categories_segments": [],
                        "categories_sizes": [],
                        "default_left": [
                            0,
                            0,
                            0,
                            0,
                            0,
                            0,
                            0,
                            0,
                            0,
                            0,
                            0
                        ],
                        "id": 5,
                        "left_children": [
                            1,
                            3,
                            5,
                            7,
                            9,
                            -1,
                            -1,
                            -1,
                            -1,
                            -1,
                            -1
                        ],
                        "loss_changes": [
                            8.0958344E2,
                            3.788086E0,
                            8.201465E1,
                            3.8118362E0,
                            4.4239044E0,
                            0E0,
                            0E0,
                            0E0,
                            0E0,
                            0E0,
                            0E0
                        ],
                        "parents": [
                            2147483647,
                            0,
                            0,
                            1,
                            1,
                            2,
                            2,
                            3,
                            3,
                            4,
                            4
                        ],
                        "right_children": [
                            2,
                            4,
                            6,
                            8,
                            10,
                            -1,
                            -1,
                            -1,
                            -1,
                            -1,
                            -1
                        ],
                        "split_conditions": [
                            8.22154E-3,
                            3.4309882E-3,
                            4.9500766E-1,
                            9.443417E-3,
                            -5.00677E-1,
                            2.2310168E-2,
                            5.336845E-2,
                            -1.4205899E-2,
                            -2.3811929E-2,
                            -2.8691802E-2,
                            -2.0662447E-2
                        ],
                        "split_indices": [
                            87,
                            76,
                            71,
                            62,
                            70,
                            0,
                            0,
                            0,
                            0,
                            0,
                            0
                        ],
                        "split_type": [
                            0,
                            0,
                            0,
                            0,
                            0,
                            0,
                            0,
                            0,
                            0,
                            0,
                            0
                        ],
                        "sum_hessian": [
                            4.8408734E2,
                            2.9626923E2,
                            1.8781812E2,
                            1.0483063E2,
                            1.9143858E2,
                            9.2415855E1,
                            9.540225E1,
                            5.070786E1,
                            5.4122772E1,
                            1.12426765E2,
                            7.9011826E1
                        ],
                        "tree_param": {
                            "num_deleted": "0",
                            "num_feature": "97",
                            "num_nodes": "11",
                            "size_leaf_vector": "1"
                        }
                    },
                    {
                        "base_weights": [
                            -0E0,
                            -9.0230846E-1,
                            1.7498661E0,
                            -1.0476893E0,
                            -3.5928884E-3,
                            2.8537517E-2,
                            5.5209722E-2,
                            -2.8256038E-2,
                            -9.0520114E-1,
                            -1.7346514E-2,
                            -2.5923721E-2
                        ],
                        "categories": [],
                        "categories_nodes": [],
                        "categories_segments": [],
                        "categories_sizes": [],
                        "default_left": [
                            0,
                            0,
                            0,
                            0,
                            0,
                            0,
                            0,
                            0,
                            0,
                            0,
                            0
                        ],
                        "id": 6,
                        "left_children": [
                            1,
                            3,
                            5,
                            7,
                            -1,
                            -1,
                            -1,
                            -1,
                            9,
                            -1,
                            -1
                        ],
                        "loss_changes": [
                            7.541259E2,
                            3.3977386E1,
                            5.0462097E1,
                            5.2148438E0,
                            0E0,
                            0E0,
                            0E0,
                            0E0,
                            4.012062E0,
                            0E0,
                            0E0
                        ],
                        "parents": [
                            2147483647,
                            0,
                            0,
                            1,
                            1,
                            2,
                            2,
                            3,
                            3,
                            8,
                            8
                        ],
                        "right_children": [
                            2,
                            4,
                            6,
                            8,
                            -1,
                            -1,
                            -1,
                            -1,
                            10,
                            -1,
                            -1
                        ],
                        "split_conditions": [
                            1.5435746E-1,
                            -1.32379E-1,
                            7.5172687E-1,
                            -5.702055E-1,
                            -3.5928884E-3,
                            2.8537517E-2,
                            5.5209722E-2,
                            -2.8256038E-2,
                            1.2543952E-1,
                            -1.7346514E-2,
                            -2.5923721E-2
                        ],
                        "split_indices": [
                            87,
                            87,
                            70,
                            70,
                            0,
                            0,
                            0,
                            0,
                            52,
                            0,
                            0
                        ],
                        "split_type": [
                            0,
                            0,
                            0,
                            0,
                            0,
                            0,
                            0,
                            0,
                            0,
                            0,
                            0
                        ],
                        "sum_hessian": [
                            4.7621954E2,
                            3.1443646E2,
                            1.6178308E2,
                            2.6286142E2,
                            5.1575054E1,
                            8.934083E1,
                            7.244225E1,
                            1.1793159E2,
                            1.4492982E2,
                            8.459276E1,
                            6.0337063E1
                        ],
                        "tree_param": {
                            "num_deleted": "0",
                            "num_feature": "97",
                            "num_nodes": "11",
                            "size_leaf_vector": "1"
                        }
                    },
                    {
                        "base_weights": [
                            -6.7617903E-3,
                            -6.774608E-1,
                            1.5904312E0,
                            -9.310446E-1,
                            1.795916E-2,
                            2.4162306E-2,
                            5.3567007E-2,
                            -1.0824839E0,
                            -1.26156835E-2,
                            -2.1697382E-2,
                            -2.8345251E-2
                        ],
                        "categories": [],
                        "categories_nodes": [],
                        "categories_segments": [],
                        "categories_sizes": [],
                        "default_left": [
                            0,
                            0,
                            0,
                            0,
                            0,
                            0,
                            0,
                            0,
                            0,
                            0,
                            0
                        ],
                        "id": 7,
                        "left_children": [
                            1,
                            3,
                            5,
                            7,
                            -1,
                            -1,
                            -1,
                            9,
                            -1,
                            -1,
                            -1
                        ],
                        "loss_changes": [
                            5.0167697E2,
                            1.2183952E2,
                            5.2290375E1,
                            1.5903E1,
                            0E0,
                            0E0,
                            0E0,
                            3.000763E0,
                            0E0,
                            0E0,
                            0E0
                        ],
                        "parents": [
                            2147483647,
                            0,
                            0,
                            1,
                            1,
                            2,
                            2,
                            3,
                            3,
                            7,
                            7
                        ],
                        "right_children": [
                            2,
                            4,
                            6,
                            8,
                            -1,
                            -1,
                            -1,
                            10,
                            -1,
                            -1,
                            -1
                        ],
                        "split_conditions": [
                            2.4040711E-1,
                            6.3576065E-2,
                            1.089849E0,
                            -3.5601112E-1,
                            1.795916E-2,
                            2.4162306E-2,
                            5.3567007E-2,
                            3.1062886E-1,
                            -1.26156835E-2,
                            -2.1697382E-2,
                            -2.8345251E-2
                        ],
                        "split_indices": [
                            70,
                            87,
                            87,
                            87,
                            0,
                            0,
                            0,
                            78,
                            0,
                            0,
                            0
                        ],
                        "split_type": [
                            0,
                            0,
                            0,
                            0,
                            0,
                            0,
                            0,
                            0,
                            0,
                            0,
                            0
                        ],
                        "sum_hessian": [
                            4.670184E2,
                            3.2925244E2,
                            1.3776595E2,
                            2.805345E2,
                            4.8717968E1,
                            7.8795616E1,
                            5.8970337E1,
                            2.0068239E2,
                            7.9852104E1,
                            9.8971596E1,
                            1.01710785E2
                        ],
                        "tree_param": {
                            "num_deleted": "0",
                            "num_feature": "97",
                            "num_nodes": "11",
                            "size_leaf_vector": "1"
                        }
                    },
                    {
                        "base_weights": [
                            -2.0663572E-2,
                            -7.026622E-1,
                            1.2729208E0,
                            -9.033686E-1,
                            6.9199554E-3,
                            2.5061849E-3,
                            2.0162826E0,
                            -1.0822396E0,
                            -6.438489E-3,
                            5.3622846E-2,
                            3.963219E-2,
                            -2.8681656E-2,
                            -2.1098992E-2
                        ],
                        "categories": [],
                        "categories_nodes": [],
                        "categories_segments": [],
                        "categories_sizes": [],
                        "default_left": [
                            0,
                            0,
                            0,
                            0,
                            0,
                            0,
                            0,
                            0,
                            0,
                            0,
                            0,
                            0,
                            0
                        ],
                        "id": 8,
                        "left_children": [
                            1,
                            3,
                            5,
                            7,
                            -1,
                            -1,
                            9,
                            11,
                            -1,
                            -1,
                            -1,
                            -1,
                            -1
                        ],
                        "loss_changes": [
                            4.1723004E2,
                            6.246721E1,
                            1.4092163E2,
                            2.8542587E1,
                            0E0,
                            0E0,
                            5.6552734E0,
                            4.2111053E0,
                            0E0,
                            0E0,
                            0E0,
                            0E0,
                            0E0
                        ],
                        "parents": [
                            2147483647,
                            0,
                            0,
                            1,
                            1,
                            2,
                            2,
                            3,
                            3,
                            6,
                            6,
                            7,
                            7
                        ],
                        "right_children": [
                            2,
                            4,
                            6,
                            8,
                            -1,
                            -1,
                            10,
                            12,
                            -1,
                            -1,
                            -1,
                            -1,
                            -1
                        ],
                        "split_conditions": [
                            9.18485E-2,
                            -1.654197E-2,
                            4.36773E-1,
                            -3.1062043E-1,
                            6.9199554E-3,
                            2.5061849E-3,
                            -5.323222E-1,
                            -2.3058286E-1,
                            -6.438489E-3,
                            5.3622846E-2,
                            3.963219E-2,
                            -2.8681656E-2,
                            -2.1098992E-2
                        ],
                        "split_indices": [
                            69,
                            71,
                            71,
                            87,
                            0,
                            0,
                            94,
                            74,
                            0,
                            0,
                            0,
                            0,
                            0
                        ],
                        "split_type": [
                            0,
                            0,
                            0,
                            0,
                            0,
                            0,
                            0,
                            0,
                            0,
                            0,
                            0,
                            0,
                            0
                        ],
                        "sum_hessian": [
                            4.715981E2,
                            3.090784E2,
                            1.625197E2,
                            2.575991E2,
                            5.1479324E1,
                            6.3690228E1,
                            9.882947E1,
                            1.9981075E2,
                            5.778834E1,
                            4.86492E1,
                            5.0180267E1,
                            1.0441503E2,
                            9.539571E1
                        ],
                        "tree_param": {
                            "num_deleted": "0",
                            "num_feature": "97",
                            "num_nodes": "13",
                            "size_leaf_vector": "1"
                        }
                    },
                    {
                        "base_weights": [
                            1.744433E-2,
                            -8.809242E-1,
                            1.662183E0,
                            -1.0453196E0,
                            -4.49453E-3,
                            2.3232464E-2,
                            2.0809753E0,
                            -2.6655953E-2,
                            -1.8014856E-2,
                            4.215223E-2,
                            5.4802522E-2
                        ],
                        "categories": [],
                        "categories_nodes": [],
                        "categories_segments": [],
                        "categories_sizes": [],
                        "default_left": [
                            0,
                            0,
                            0,
                            0,
                            0,
                            0,
                            0,
                            0,
                            0,
                            0,
                            0
                        ],
                        "id": 9,
                        "left_children": [
                            1,
                            3,
                            5,
                            7,
                            -1,
                            -1,
                            9,
                            -1,
                            -1,
                            -1,
                            -1
                        ],
                        "loss_changes": [
                            7.171449E2,
                            3.51566E1,
                            4.5714264E1,
                            6.017639E0,
                            0E0,
                            0E0,
                            4.11203E0,
                            0E0,
                            0E0,
                            0E0,
                            0E0
                        ],
                        "parents": [
                            2147483647,
                            0,
                            0,
                            1,
                            1,
                            2,
                            2,
                            3,
                            3,
                            6,
                            6
                        ],
                        "right_children": [
                            2,
                            4,
                            6,
                            8,
                            -1,
                            -1,
                            10,
                            -1,
                            -1,
                            -1,
                            -1
                        ],
                        "split_conditions": [
                            1.5435746E-1,
                            -1.6448452E-1,
                            5.0805783E-1,
                            -4.523281E-1,
                            -4.49453E-3,
                            2.3232464E-2,
                            7.5352526E-1,
                            -2.6655953E-2,
                            -1.8014856E-2,
                            4.215223E-2,
                            5.4802522E-2
                        ],
                        "split_indices": [
                            87,
                            87,
                            89,
                            87,
                            0,
                            0,
                            72,
                            0,
                            0,
                            0,
                            0
                        ],
                        "split_type": [
                            0,
                            0,
                            0,
                            0,
                            0,
                            0,
                            0,
                            0,
                            0,
                            0,
                            0
                        ],
                        "sum_hessian": [
                            4.8386917E2,
                            3.1309637E2,
                            1.7077281E2,
                            2.522241E2,
                            6.087227E1,
                            6.716412E1,
                            1.03608696E2,
                            1.8159924E2,
                            7.062486E1,
                            5.5507206E1,
                            4.810149E1
                        ],
                        "tree_param": {
                            "num_deleted": "0",
                            "num_feature": "97",
                            "num_nodes": "11",
                            "size_leaf_vector": "1"
                        }
                    },
                    {
                        "base_weights": [
                            -1.4608898E-2,
                            -8.487534E-1,
                            1.4704117E0,
                            -1.0119967E0,
                            -8.084215E-3,
                            1.7908417E-2,
                            4.591878E-2,
                            -1.8357668E-2,
                            -2.5625281E-2
                        ],
                        "categories": [],
                        "categories_nodes": [],
                        "categories_segments": [],
                        "categories_sizes": [],
                        "default_left": [
                            0,
                            0,
                            0,
                            0,
                            0,
                            0,
                            0,
                            0,
                            0
                        ],
                        "id": 10,
                        "left_children": [
                            1,
                            3,
                            5,
                            7,
                            -1,
                            -1,
                            -1,
                            -1,
                            -1
                        ],
                        "loss_changes": [
                            5.81385E2,
                            2.4151474E1,
                            5.8148743E1,
                            3.6508484E0,
                            0E0,
                            0E0,
                            0E0,
                            0E0,
                            0E0
                        ],
                        "parents": [
                            2147483647,
                            0,
                            0,
                            1,
                            1,
                            2,
                            2,
                            3,
                            3
                        ],
                        "right_children": [
                            2,
                            4,
                            6,
                            8,
                            -1,
                            -1,
                            -1,
                            -1,
                            -1
                        ],
                        "split_conditions": [
                            1.344298E-1,
                            -2.552659E-1,
                            6.525482E-1,
                            9.403091E-4,
                            -8.084215E-3,
                            1.7908417E-2,
                            4.591878E-2,
                            -1.8357668E-2,
                            -2.5625281E-2
                        ],
                        "split_indices": [
                            87,
                            87,
                            87,
                            77,
                            0,
                            0,
                            0,
                            0,
                            0
                        ],
                        "split_type": [
                            0,
                            0,
                            0,
                            0,
                            0,
                            0,
                            0,
                            0,
                            0
                        ],
                        "sum_hessian": [
                            4.6799457E2,
                            2.9992334E2,
                            1.6807124E2,
                            2.2546898E2,
                            7.4454346E1,
                            7.123557E1,
                            9.683567E1,
                            6.739384E1,
                            1.5807513E2
                        ],
                        "tree_param": {
                            "num_deleted": "0",
                            "num_feature": "97",
                            "num_nodes": "9",
                            "size_leaf_vector": "1"
                        }
                    },
                    {
                        "base_weights": [
                            -4.4447813E-2,
                            -7.4724513E-1,
                            1.469291E0,
                            -8.7906194E-1,
                            -1.5904348E-3,
                            2.3804128E-2,
                            4.859594E-2,
                            -1.0370093E-2,
                            -9.8844856E-1,
                            -2.503178E-2,
                            -1.64574E-2
                        ],
                        "categories": [],
                        "categories_nodes": [],
                        "categories_segments": [],
                        "categories_sizes": [],
                        "default_left": [
                            0,
                            0,
                            0,
                            0,
                            0,
                            0,
                            0,
                            0,
                            0,
                            0,
                            0
                        ],
                        "id": 11,
                        "left_children": [
                            1,
                            3,
                            5,
                            7,
                            -1,
                            -1,
                            -1,
                            -1,
                            9,
                            -1,
                            -1
                        ],
                        "loss_changes": [
                            5.0828262E2,
                            2.9030548E1,
                            3.9934814E1,
                            1.2423874E1,
                            0E0,
                            0E0,
                            0E0,
                            0E0,
                            4.579254E0,
                            0E0,
                            0E0
                        ],
                        "parents": [
                            2147483647,
                            0,
                            0,
                            1,
                            1,
                            2,
                            2,
                            3,
                            3,
                            8,
                            8
                        ],
                        "right_children": [
                            2,
                            4,
                            6,
                            8,
                            -1,
                            -1,
                            -1,
                            -1,
                            10,
                            -1,
                            -1
                        ],
                        "split_conditions": [
                            1.9118825E-1,
                            -4.7964893E-2,
                            2.8331063E0,
                            -3.4843895E-1,
                            -1.5904348E-3,
                            2.3804128E-2,
                            4.859594E-2,
                            -1.0370093E-2,
                            -3.652729E-1,
                            -2.503178E-2,
                            -1.64574E-2
                        ],
                        "split_indices": [
                            71,
                            71,
                            91,
                            76,
                            0,
                            0,
                            0,
                            0,
                            72,
                            0,
                            0
                        ],
                        "split_type": [
                            0,
                            0,
                            0,
                            0,
                            0,
                            0,
                            0,
                            0,
                            0,
                            0,
                            0
                        ],
                        "sum_hessian": [
                            4.7643527E2,
                            3.2567966E2,
                            1.5075562E2,
                            2.7237515E2,
                            5.3304512E1,
                            8.897535E1,
                            6.178026E1,
                            5.5905445E1,
                            2.164697E2,
                            1.6286469E2,
                            5.3605015E1
                        ],
                        "tree_param": {
                            "num_deleted": "0",
                            "num_feature": "97",
                            "num_nodes": "11",
                            "size_leaf_vector": "1"
                        }
                    },
                    {
                        "base_weights": [
                            -1.5800525E-2,
                            -5.400463E-1,
                            1.6294439E0,
                            -9.3511254E-1,
                            2.5738585E-1,
                            2.632031E-2,
                            4.7749948E-2,
                            -2.5873454E-2,
                            -9.523373E-3,
                            2.1973502E-2,
                            -1.1516483E-2
                        ],
                        "categories": [],
                        "categories_nodes": [],
                        "categories_segments": [],
                        "categories_sizes": [],
                        "default_left": [
                            0,
                            0,
                            0,
                            0,
                            0,
                            0,
                            0,
                            0,
                            0,
                            0,
                            0
                        ],
                        "id": 12,
                        "left_children": [
                            1,
                            3,
                            5,
                            7,
                            9,
                            -1,
                            -1,
                            -1,
                            -1,
                            -1,
                            -1
                        ],
                        "loss_changes": [
                            4.0323303E2,
                            1.1201641E2,
                            2.1741302E1,
                            2.1629517E1,
                            6.1438934E1,
                            0E0,
                            0E0,
                            0E0,
                            0E0,
                            0E0,
                            0E0
                        ],
                        "parents": [
                            2147483647,
                            0,
                            0,
                            1,
                            1,
                            2,
                            2,
                            3,
                            3,
                            4,
                            4
                        ],
                        "right_children": [
                            2,
                            4,
                            6,
                            8,
                            10,
                            -1,
                            -1,
                            -1,
                            -1,
                            -1,
                            -1
                        ],
                        "split_conditions": [
                            4.1159618E-1,
                            -2.4817707E-1,
                            2.8331063E0,
                            5.368808E-1,
                            4.161375E-1,
                            2.632031E-2,
                            4.7749948E-2,
                            -2.5873454E-2,
                            -9.523373E-3,
                            2.1973502E-2,
                            -1.1516483E-2
                        ],
                        "split_indices": [
                            70,
                            72,
                            91,
                            88,
                            83,
                            0,
                            0,
                            0,
                            0,
                            0,
                            0
                        ],
                        "split_type": [
                            0,
                            0,
                            0,
                            0,
                            0,
                            0,
                            0,
                            0,
                            0,
                            0,
                            0
                        ],
                        "sum_hessian": [
                            4.662596E2,
                            3.5401523E2,
                            1.12244385E2,
                            2.3676872E2,
                            1.172465E2,
                            5.2996506E1,
                            5.9247883E1,
                            1.7617627E2,
                            6.0592464E1,
                            6.127447E1,
                            5.597203E1
                        ],
                        "tree_param": {
                            "num_deleted": "0",
                            "num_feature": "97",
                            "num_nodes": "11",
                            "size_leaf_vector": "1"
                        }
                    },
                    {
                        "base_weights": [
                            4.435165E-2,
                            -8.367486E-1,
                            1.4016122E0,
                            -9.850361E-1,
                            -1.1132254E-2,
                            1.7789513E-2,
                            1.7593237E0,
                            -1.638611E-2,
                            -2.5870826E-2,
                            3.519188E-2,
                            4.604013E-2
                        ],
                        "categories": [],
                        "categories_nodes": [],
                        "categories_segments": [],
                        "categories_sizes": [],
                        "default_left": [
                            0,
                            0,
                            0,
                            0,
                            0,
                            0,
                            0,
                            0,
                            0,
                            0,
                            0
                        ],
                        "id": 13,
                        "left_children": [
                            1,
                            3,
                            5,
                            7,
                            -1,
                            -1,
                            9,
                            -1,
                            -1,
                            -1,
                            -1
                        ],
                        "loss_changes": [
                            5.6529724E2,
                            1.4672867E1,
                            4.1070007E1,
                            6.402603E0,
                            0E0,
                            0E0,
                            3.8187256E0,
                            0E0,
                            0E0,
                            0E0,
                            0E0
                        ],
                        "parents": [
                            2147483647,
                            0,
                            0,
                            1,
                            1,
                            2,
                            2,
                            3,
                            3,
                            6,
                            6
                        ],
                        "right_children": [
                            2,
                            4,
                            6,
                            8,
                            -1,
                            -1,
                            10,
                            -1,
                            -1,
                            -1,
                            -1
                        ],
                        "split_conditions": [
                            1.2557308E-1,
                            -2.0159398E-1,
                            5.0805783E-1,
                            -5.7504017E-2,
                            -1.1132254E-2,
                            1.7789513E-2,
                            2.8331063E0,
                            -1.638611E-2,
                            -2.5870826E-2,
                            3.519188E-2,
                            4.604013E-2
                        ],
                        "split_indices": [
                            87,
                            69,
                            89,
                            78,
                            0,
                            0,
                            91,
                            0,
                            0,
                            0,
                            0
                        ],
                        "split_type": [
                            0,
                            0,
                            0,
                            0,
                            0,
                            0,
                            0,
                            0,
                            0,
                            0,
                            0
                        ],
                        "sum_hessian": [
                            4.712368E2,
                            2.858424E2,
                            1.853944E2,
                            2.0096794E2,
                            8.487446E1,
                            6.763934E1,
                            1.1775504E2,
                            6.463576E1,
                            1.3633218E2,
                            5.8626907E1,
                            5.912813E1
                        ],
                        "tree_param": {
                            "num_deleted": "0",
                            "num_feature": "97",
                            "num_nodes": "11",
                            "size_leaf_vector": "1"
                        }
                    },
                    {
                        "base_weights": [
                            -1.3489948E-2,
                            -8.9832073E-1,
                            1.2812068E0,
                            -2.4682732E-2,
                            -1.1970606E-2,
                            8.0436033E-1,
                            4.288224E-2,
                            3.0158985E-2,
                            5.8711106E-3
                        ],
                        "categories": [],
                        "categories_nodes": [],
                        "categories_segments": [],
                        "categories_sizes": [],
                        "default_left": [
                            0,
                            0,
                            0,
                            0,
                            0,
                            0,
                            0,
                            0,
                            0
                        ],
                        "id": 14,
                        "left_children": [
                            1,
                            3,
                            5,
                            -1,
                            -1,
                            7,
                            -1,
                            -1,
                            -1
                        ],
                        "loss_changes": [
                            5.431553E2,
                            1.7023941E1,
                            5.0241882E1,
                            0E0,
                            0E0,
                            2.8256004E1,
                            0E0,
                            0E0,
                            0E0
                        ],
                        "parents": [
                            2147483647,
                            0,
                            0,
                            1,
                            1,
                            2,
                            2,
                            5,
                            5
                        ],
                        "right_children": [
                            2,
                            4,
                            6,
                            -1,
                            -1,
                            8,
                            -1,
                            -1,
                            -1
                        ],
                        "split_conditions": [
                            6.3576065E-2,
                            -3.5601112E-1,
                            7.754353E-1,
                            -2.4682732E-2,
                            -1.1970606E-2,
                            2.1532563E-2,
                            4.288224E-2,
                            3.0158985E-2,
                            5.8711106E-3
                        ],
                        "split_indices": [
                            87,
                            87,
                            87,
                            0,
                            0,
                            76,
                            0,
                            0,
                            0
                        ],
                        "split_type": [
                            0,
                            0,
                            0,
                            0,
                            0,
                            0,
                            0,
                            0,
                            0
                        ],
                        "sum_hessian": [
                            4.7275845E2,
                            2.8102396E2,
                            1.9173448E2,
                            1.9600752E2,
                            8.501643E1,
                            1.048732E2,
                            8.686129E1,
                            5.477045E1,
                            5.0102753E1
                        ],
                        "tree_param": {
                            "num_deleted": "0",
                            "num_feature": "97",
                            "num_nodes": "9",
                            "size_leaf_vector": "1"
                        }
                    },
                    {
                        "base_weights": [
                            -4.5390796E-2,
                            -8.602848E-1,
                            1.236111E0,
                            -9.9117845E-1,
                            -1.0405247E-2,
                            8.03845E-1,
                            4.4229135E-2,
                            -2.5462061E-2,
                            -1.5909636E-2,
                            3.092455E-2,
                            5.6020943E-3
                        ],
                        "categories": [],
                        "categories_nodes": [],
                        "categories_segments": [],
                        "categories_sizes": [],
                        "default_left": [
                            0,
                            0,
                            0,
                            0,
                            0,
                            0,
                            0,
                            0,
                            0,
                            0,
                            0
                        ],
                        "id": 15,
                        "left_children": [
                            1,
                            3,
                            5,
                            7,
                            -1,
                            9,
                            -1,
                            -1,
                            -1,
                            -1,
                            -1
                        ],
                        "loss_changes": [
                            4.8505872E2,
                            1.4830231E1,
                            5.0507965E1,
                            6.0674133E0,
                            0E0,
                            3.237169E1,
                            0E0,
                            0E0,
                            0E0,
                            0E0,
                            0E0
                        ],
                        "parents": [
                            2147483647,
                            0,
                            0,
                            1,
                            1,
                            2,
                            2,
                            3,
                            3,
                            5,
                            5
                        ],
                        "right_children": [
                            2,
                            4,
                            6,
                            8,
                            -1,
                            10,
                            -1,
                            -1,
                            -1,
                            -1,
                            -1
                        ],
                        "split_conditions": [
                            6.3576065E-2,
                            -1.5201516E-1,
                            7.5172687E-1,
                            -4.3240044E-1,
                            -1.0405247E-2,
                            -2.556599E-1,
                            4.4229135E-2,
                            -2.5462061E-2,
                            -1.5909636E-2,
                            3.092455E-2,
                            5.6020943E-3
                        ],
                        "split_indices": [
                            87,
                            69,
                            70,
                            87,
                            0,
                            78,
                            0,
                            0,
                            0,
                            0,
                            0
                        ],
                        "split_type": [
                            0,
                            0,
                            0,
                            0,
                            0,
                            0,
                            0,
                            0,
                            0,
                            0,
                            0
                        ],
                        "sum_hessian": [
                            4.631117E2,
                            2.8330368E2,
                            1.79808E2,
                            2.1408804E2,
                            6.921563E1,
                            1.10111534E2,
                            6.969647E1,
                            1.5827466E2,
                            5.5813377E1,
                            5.629079E1,
                            5.3820744E1
                        ],
                        "tree_param": {
                            "num_deleted": "0",
                            "num_feature": "97",
                            "num_nodes": "11",
                            "size_leaf_vector": "1"
                        }
                    },
                    {
                        "base_weights": [
                            1.7168066E-2,
                            -7.6777357E-1,
                            1.3612E0,
                            -9.539693E-1,
                            -6.844717E-3,
                            2.0097526E-2,
                            4.221396E-2,
                            -1.8008696E-2,
                            -1.0438981E0,
                            -2.7528822E-2,
                            -2.0253919E-2
                        ],
                        "categories": [],
                        "categories_nodes": [],
                        "categories_segments": [],
                        "categories_sizes": [],
                        "default_left": [
                            0,
                            0,
                            0,
                            0,
                            0,
                            0,
                            0,
                            0,
                            0,
                            0,
                            0
                        ],
                        "id": 16,
                        "left_children": [
                            1,
                            3,
                            5,
                            7,
                            -1,
                            -1,
                            -1,
                            -1,
                            9,
                            -1,
                            -1
                        ],
                        "loss_changes": [
                            4.8037015E2,
                            2.4955002E1,
                            3.641446E1,
                            2.4934998E0,
                            0E0,
                            0E0,
                            0E0,
                            0E0,
                            2.2373352E0,
                            0E0,
                            0E0
                        ],
                        "parents": [
                            2147483647,
                            0,
                            0,
                            1,
                            1,
                            2,
                            2,
                            3,
                            3,
                            8,
                            8
                        ],
                        "right_children": [
                            2,
                            4,
                            6,
                            8,
                            -1,
                            -1,
                            -1,
                            -1,
                            10,
                            -1,
                            -1
                        ],
                        "split_conditions": [
                            1.5435746E-1,
                            -2.552659E-1,
                            7.754353E-1,
                            -1.1000201E-1,
                            -6.844717E-3,
                            2.0097526E-2,
                            4.221396E-2,
                            -1.8008696E-2,
                            1.0686212E-1,
                            -2.7528822E-2,
                            -2.0253919E-2
                        ],
                        "split_indices": [
                            87,
                            87,
                            87,
                            4,
                            0,
                            0,
                            0,
                            0,
                            48,
                            0,
                            0
                        ],
                        "split_type": [
                            0,
                            0,
                            0,
                            0,
                            0,
                            0,
                            0,
                            0,
                            0,
                            0,
                            0
                        ],
                        "sum_hessian": [
                            4.5384714E2,
                            2.8664133E2,
                            1.6720583E2,
                            2.0499936E2,
                            8.164195E1,
                            8.0982864E1,
                            8.622297E1,
                            7.121579E1,
                            1.3378357E2,
                            7.118316E1,
                            6.2600407E1
                        ],
                        "tree_param": {
                            "num_deleted": "0",
                            "num_feature": "97",
                            "num_nodes": "11",
                            "size_leaf_vector": "1"
                        }
                    },
                    {
                        "base_weights": [
                            2.2428313E-2,
                            -6.485771E-1,
                            1.2532555E0,
                            -8.2374996E-1,
                            -1.8109329E-3,
                            1.17503805E-2,
                            1.6048478E0,
                            -2.2916889E-2,
                            -8.460863E-3,
                            4.4034943E-2,
                            2.9769007E-2
                        ],
                        "categories": [],
                        "categories_nodes": [],
                        "categories_segments": [],
                        "categories_sizes": [],
                        "default_left": [
                            0,
                            0,
                            0,
                            0,
                            0,
                            0,
                            0,
                            0,
                            0,
                            0,
                            0
                        ],
                        "id": 17,
                        "left_children": [
                            1,
                            3,
                            5,
                            7,
                            -1,
                            -1,
                            9,
                            -1,
                            -1,
                            -1,
                            -1
                        ],
                        "loss_changes": [
                            3.8296582E2,
                            2.9816338E1,
                            4.2160522E1,
                            1.6617294E1,
                            0E0,
                            0E0,
                            8.237244E0,
                            0E0,
                            0E0,
                            0E0,
                            0E0
                        ],
                        "parents": [
                            2147483647,
                            0,
                            0,
                            1,
                            1,
                            2,
                            2,
                            3,
                            3,
                            6,
                            6
                        ],
                        "right_children": [
                            2,
                            4,
                            6,
                            8,
                            -1,
                            -1,
                            10,
                            -1,
                            -1,
                            -1,
                            -1
                        ],
                        "split_conditions": [
                            1.3356088E-1,
                            -2.3762034E-1,
                            4.7109723E-1,
                            5.1945376E-1,
                            -1.8109329E-3,
                            1.17503805E-2,
                            -3.178536E-1,
                            -2.2916889E-2,
                            -8.460863E-3,
                            4.4034943E-2,
                            2.9769007E-2
                        ],
                        "split_indices": [
                            71,
                            72,
                            71,
                            88,
                            0,
                            0,
                            78,
                            0,
                            0,
                            0,
                            0
                        ],
                        "split_type": [
                            0,
                            0,
                            0,
                            0,
                            0,
                            0,
                            0,
                            0,
                            0,
                            0,
                            0
                        ],
                        "sum_hessian": [
                            4.6219476E2,
                            2.9926547E2,
                            1.6292929E2,
                            2.2855263E2,
                            7.0712845E1,
                            5.2778687E1,
                            1.101506E2,
                            1.682421E2,
                            6.0310535E1,
                            5.6242283E1,
                            5.3908314E1
                        ],
                        "tree_param": {
                            "num_deleted": "0",
                            "num_feature": "97",
                            "num_nodes": "11",
                            "size_leaf_vector": "1"
                        }
                    },
                    {
                        "base_weights": [
                            -1.563643E-2,
                            -7.5480574E-1,
                            1.1593435E0,
